booster[0]:
0:[f1<1.79999995] yes=1,no=2,missing=1
	1:leaf=-0.00167664688
	2:leaf=0.0225523021
booster[1]:
0:[f1<2.20499992] yes=1,no=2,missing=1
	1:leaf=0.0226574317
	2:leaf=-0.00237166346
booster[2]:
0:leaf=-0.00332116825
booster[3]:
0:leaf=-0.00334951468
booster[4]:
0:leaf=-0.00329787261
booster[5]:
0:leaf=-0.00336898421
booster[6]:
0:leaf=-0.00335616455
booster[7]:
0:leaf=-0.00335616455
booster[8]:
0:leaf=-0.00334951468
booster[9]:
0:leaf=-0.00330584752
booster[10]:
0:[f0<12.7800007] yes=1,no=2,missing=1
	1:leaf=0.0251841471
	2:leaf=0.000917052559
booster[11]:
0:[f0<12.7450008] yes=1,no=2,missing=1
	1:[f0<12.1800003] yes=3,no=4,missing=3
		3:leaf=-0.00234987633
		4:leaf=0.00434814813
	2:leaf=0.0192091651
booster[12]:
0:leaf=-0.00330338627
booster[13]:
0:leaf=-0.0033260365
booster[14]:
0:leaf=-0.00333326613
booster[15]:
0:leaf=-0.00340162986
booster[16]:
0:leaf=-0.00330329663
booster[17]:
0:leaf=-0.00338475779
booster[18]:
0:leaf=-0.0032953769
booster[19]:
0:leaf=-0.00332610263
booster[20]:
0:[f1<2.08999991] yes=1,no=2,missing=1
	1:leaf=-3.74737065e-05
	2:leaf=0.0259594973
booster[21]:
0:[f1<2.05499983] yes=1,no=2,missing=1
	1:leaf=0.0217672996
	2:[f1<2.73500013] yes=3,no=4,missing=3
		3:leaf=0.000404393388
		4:leaf=-0.00262218411
booster[22]:
0:leaf=-0.00338234706
booster[23]:
0:leaf=-0.00339367287
booster[24]:
0:leaf=-0.00333775184
booster[25]:
0:leaf=-0.00329267466
booster[26]:
0:leaf=-0.00337028992
booster[27]:
0:leaf=-0.00333071686
booster[28]:
0:leaf=-0.00330847828
booster[29]:
0:leaf=-0.00332354219
booster[30]:
0:[f0<12.7900009] yes=1,no=2,missing=1
	1:leaf=0.0242030974
	2:leaf=0.000496025488
booster[31]:
0:[f1<2.36500001] yes=1,no=2,missing=1
	1:leaf=0.0191396885
	2:leaf=-0.0021452622
booster[32]:
0:leaf=-0.00337398704
booster[33]:
0:leaf=-0.00331363245
booster[34]:
0:leaf=-0.0033353162
booster[35]:
0:leaf=-0.00327356602
booster[36]:
0:leaf=-0.0033968247
booster[37]:
0:leaf=-0.00331369275
booster[38]:
0:leaf=-0.00331371161
booster[39]:
0:leaf=-0.00331368344
booster[40]:
0:[f1<2.21000004] yes=1,no=2,missing=1
	1:leaf=-0.000687364605
	2:leaf=0.0232938174
booster[41]:
0:[f0<12.7450008] yes=1,no=2,missing=1
	1:[f0<12.2350006] yes=3,no=4,missing=3
		3:leaf=-0.00244913716
		4:leaf=0.00325298309
	2:leaf=0.0188875701
booster[42]:
0:leaf=-0.00333256042
booster[43]:
0:leaf=-0.00331839942
booster[44]:
0:leaf=-0.00331855589
booster[45]:
0:leaf=-0.00335916132
booster[46]:
0:leaf=-0.00331821013
booster[47]:
0:leaf=-0.00332536176
booster[48]:
0:leaf=-0.00327086332
booster[49]:
0:leaf=-0.00336539932
booster[50]:
0:[f1<2.05499983] yes=1,no=2,missing=1
	1:leaf=-0.000767455436
	2:leaf=0.0228603519
booster[51]:
0:[f1<2.20499992] yes=1,no=2,missing=1
	1:leaf=0.0192648452
	2:leaf=-0.0021459565
booster[52]:
0:leaf=-0.00335690053
booster[53]:
0:leaf=-0.00333716813
booster[54]:
0:leaf=-0.00336312666
booster[55]:
0:leaf=-0.00338669028
booster[56]:
0:leaf=-0.00335045694
booster[57]:
0:leaf=-0.00335679878
booster[58]:
0:leaf=-0.00335054076
booster[59]:
0:leaf=-0.00329311402
booster[60]:
0:[f0<12.7800007] yes=1,no=2,missing=1
	1:leaf=0.0203334391
	2:leaf=0.00272727269
booster[61]:
0:[f1<2.20499992] yes=1,no=2,missing=1
	1:leaf=0.021700073
	2:leaf=-0.00218321686
booster[62]:
0:leaf=-0.00332091027
booster[63]:
0:leaf=-0.00331360218
booster[64]:
0:leaf=-0.00327461842
booster[65]:
0:leaf=-0.00332786329
booster[66]:
0:leaf=-0.00326591404
booster[67]:
0:leaf=-0.00336686638
booster[68]:
0:leaf=-0.00316566252
booster[69]:
0:leaf=-0.00332091702
booster[70]:
0:[f1<2.20499992] yes=1,no=2,missing=1
	1:leaf=0.00148849562
	2:leaf=0.022643989
booster[71]:
0:[f1<2.15999985] yes=1,no=2,missing=1
	1:leaf=0.019806413
	2:leaf=-0.00214363192
booster[72]:
0:leaf=-0.00331100589
booster[73]:
0:leaf=-0.00330373435
booster[74]:
0:leaf=-0.0033519615
booster[75]:
0:leaf=-0.00331101101
booster[76]:
0:leaf=-0.00331091485
booster[77]:
0:leaf=-0.00331088761
booster[78]:
0:leaf=-0.00331852003
booster[79]:
0:leaf=-0.00326345069
booster[80]:
0:[f0<12.7450008] yes=1,no=2,missing=1
	1:leaf=0.0204676595
	2:leaf=-0.000703082362
booster[81]:
0:[f1<2.08999991] yes=1,no=2,missing=1
	1:leaf=0.0192633625
	2:[f1<2.7750001] yes=3,no=4,missing=3
		3:leaf=0.000389016059
		4:leaf=-0.00253660092
booster[82]:
0:leaf=-0.00326069747
booster[83]:
0:leaf=-0.00334940618
booster[84]:
0:leaf=-0.00337381382
booster[85]:
0:leaf=-0.00336793833
booster[86]:
0:leaf=-0.00336777139
booster[87]:
0:leaf=-0.00334310695
booster[88]:
0:leaf=-0.00323386537
booster[89]:
0:leaf=-0.00324296113
booster[90]:
0:[f0<12.7800007] yes=1,no=2,missing=1
	1:leaf=0.0200518165
	2:leaf=0.000314730656
booster[91]:
0:[f1<2.15999985] yes=1,no=2,missing=1
	1:leaf=0.0184225719
	2:leaf=-0.00292611169
booster[92]:
0:leaf=-0.00325767207
booster[93]:
0:leaf=-0.00334060099
booster[94]:
0:leaf=-0.00328321871
booster[95]:
0:leaf=-0.00332032447
booster[96]:
0:leaf=-0.00333410664
booster[97]:
0:leaf=-0.00329842162
booster[98]:
0:leaf=-0.00327524985
booster[99]:
0:leaf=-0.00334088178
